<?xml version="1.0"?>
<opencv_storage>
<cascade>
  <stageType>BOOST</stageType>
  <featureType>HAAR</featureType>
  <height>60</height>
  <width>100</width>
  <stageParams>
    <boostType>GAB</boostType>
    <minHitRate>9.9500000476837158e-01</minHitRate>
    <maxFalseAlarm>5.0000000000000000e-01</maxFalseAlarm>
    <weightTrimRate>9.4999999999999996e-01</weightTrimRate>
    <maxDepth>1</maxDepth>
    <maxWeakCount>100</maxWeakCount></stageParams>
  <featureParams>
    <maxCatCount>0</maxCatCount>
    <featSize>1</featSize>
    <mode>BASIC</mode></featureParams>
  <stageNum>1</stageNum>
  <stages>
    <!-- stage 0 -->
    <_>
      <maxWeakCount>2</maxWeakCount>
      <stageThreshold>2.1746881306171417e-01</stageThreshold>
      <weakClassifiers>
        <_>
          <internalNodes>
            0 -1 0 -2.5106430053710938e-02</internalNodes>
          <leafValues>
            1. -7.8253120183944702e-01</leafValues></_>
        <_>
          <internalNodes>
            0 -1 1 -1.7856843769550323e-02</internalNodes>
          <leafValues>
            1. -6.2588131427764893e-01</leafValues></_></weakClassifiers></_></stages>
  <features>
    <_>
      <rects>
        <_>
          21 15 24 38 -1.</_>
        <_>
          29 15 8 38 3.</_></rects>
      <tilted>0</tilted></_>
    <_>
      <rects>
        <_>
          48 22 21 25 -1.</_>
        <_>
          55 22 7 25 3.</_></rects>
      <tilted>0</tilted></_></features></cascade>
</opencv_storage>
